embedding_1/embeddings:0
(26, 2)
[[ 0.10824049 -0.19876996]
 [-0.22581476 -0.40539497]
 [-0.38227865  0.07891947]
 [ 0.05361611  0.9085241 ]
 [ 0.46351677  0.76133394]
 [-0.10850962  0.03917119]
 [ 0.46176022 -0.2398526 ]
 [-0.5169378   0.6765609 ]
 [-0.51716834 -0.30533746]
 [ 0.35755008 -0.3848335 ]
 [-0.4485938   0.14885013]
 [ 0.6673587   0.7218587 ]
 [ 0.3484406  -0.13597949]
 [-0.2352613  -0.95171297]
 [-0.5643004  -0.78302443]
 [-0.31928906 -0.5152156 ]
 [ 0.39990604 -0.02340337]
 [-0.5695146   0.27337557]
 [ 0.79866785 -0.6203149 ]
 [ 0.27646825 -0.577717  ]
 [-0.0916889  -0.20498236]
 [-0.21399687  0.7565415 ]
 [-0.8378076   0.10230665]
 [ 0.6109647  -0.7872957 ]
 [ 1.1059858  -0.19502409]
 [-0.01015015 -0.0080502 ]]
simple_rnn_5/simple_rnn_cell_5/kernel:0
(2, 10)
[[ 1.0160058  -1.1393129   0.22155069 -1.1134577   0.5464958  -0.77213275
   1.5953025  -0.39257428 -1.1059992  -1.3780643 ]
 [-0.3762035   0.9768755   0.04253389 -1.2115302  -0.48149496  0.33937967
   1.383857   -0.9322415  -0.5915547   1.0676166 ]]
simple_rnn_5/simple_rnn_cell_5/recurrent_kernel:0
(10, 10)
[[-5.63856661e-01 -8.66983354e-01 -4.49690431e-01 -1.10613927e-03
  -5.23716092e-01  5.80398679e-01 -1.70786127e-01  2.27920428e-01
  -1.31228137e+00  8.68616760e-01]
 [ 1.04796255e+00  1.29135430e+00  1.00090134e+00  3.80783558e-01
   6.47929728e-01 -4.80935007e-01 -1.77535236e-01 -1.10291970e+00
  -1.05700314e-01  1.16773081e+00]
 [ 6.09790683e-01 -7.69820809e-01 -6.35894686e-02 -1.52020141e-01
   7.82045245e-01  1.39000046e+00 -8.86131406e-01  1.51650742e-01
  -2.66657826e-02 -9.54965532e-01]
 [ 8.46873879e-01 -4.92135108e-01 -1.36065865e+00  1.04253823e-02
   1.13128579e+00  6.96058035e-01 -7.77075887e-02 -7.24454463e-01
   1.07704973e+00  4.88658369e-01]
 [-2.57712808e-02 -5.90796590e-01  4.06161368e-01  9.12611365e-01
   1.32289982e+00  3.68137121e-01  5.55880666e-01 -4.30620134e-01
   5.04260600e-01  1.22256029e+00]
 [-1.12677717e+00  5.19914985e-01 -9.69279349e-01 -7.65190005e-01
   5.92113435e-02 -4.57391024e-01 -1.06948912e+00  3.24047744e-01
   1.20680153e+00  1.55245485e-02]
 [-2.28155717e-01 -7.35094070e-01  3.81426007e-01 -1.47420138e-01
  -1.15005350e+00  5.13759196e-01  8.20978999e-01 -1.36478651e+00
   6.65549099e-01  5.62192261e-01]
 [-1.67560959e+00  8.61004591e-01 -4.03332621e-01 -9.60615337e-01
   9.79661226e-01  4.15136330e-02  1.18672025e+00  1.43618686e-02
   1.03311765e+00  4.44540918e-01]
 [-4.52640146e-01  5.27203977e-01  1.04716659e+00  1.05790913e+00
   8.03777695e-01 -7.14141965e-01 -2.29254588e-01 -3.63828778e-01
   2.25188330e-01 -1.05884612e+00]
 [ 6.03752255e-01 -2.07966551e-01  2.35833693e-02 -1.12668800e+00
   6.37089014e-01 -1.37313163e+00 -7.19167352e-01 -1.02048171e+00
   7.18371809e-01  2.07393840e-01]]
simple_rnn_5/simple_rnn_cell_5/bias:0
(10,)
[ 0.50510216 -0.16697887 -0.17217946  0.00777632  0.02257822 -0.2176062
 -0.21632531 -0.21031986  0.29050842  0.12493845]
dense_5/kernel:0
(10, 26)
[[-0.04965599  0.12240888 -0.31756243 -0.11365904 -1.4450805   1.0968438
   0.7054551  -1.2572656  -0.8308477  -1.2292473   1.5189484   0.42533886
   1.089078    1.5175782   1.2618606  -0.5672184  -1.139735    1.2523062
   0.42410806  1.0073442  -1.3212501  -1.5589612  -1.000436   -0.05041401
   0.7022463   1.3732953 ]
 [-0.4033035   0.01965571 -0.27947637 -0.01118405  0.84843    -1.2460034
  -1.0011903  -0.9531947   1.3059033  -0.02010919  1.4539018  -0.947541
  -0.5206962  -0.0024577  -0.72009766  1.3810632   0.9582416   1.2341306
  -1.1919549  -0.9020508  -1.1775529  -1.015025    0.5342735   1.1368151
  -1.086955   -0.88524216]
 [ 0.20858762  0.31306034  0.40950635  0.04838136  1.0908942   1.0644745
  -0.77329886 -0.7848555  -0.5942594  -1.1657206   0.81799036 -1.1845484
  -1.0751042   0.4005421  -0.8463494  -1.3552394   0.8007504   0.39326474
   1.393734   -0.8033611   0.85280967 -0.31963843  0.742561    1.1530497
   0.8048073  -1.050836  ]
 [-0.355057   -0.29885238 -0.32391855 -0.0171151  -0.68215835  0.45727083
  -0.7366364  -1.046256   -0.980743   -1.2228132   0.6946617   0.93602836
  -1.1203713   1.2016641  -0.86999816 -0.4197611   0.929991    1.2184547
   1.2014906  -0.6104165   1.1065826  -1.3911434  -1.1996125   1.1028328
   1.0475804   0.6668614 ]
 [-0.15039378 -0.5007115   0.03539809 -0.48320672  1.2879387   0.8498983
  -0.9865072  -0.81024444 -1.0803691  -0.72985744 -0.51022124  0.74518496
   1.0843474  -1.1608582  -0.9670261  -0.70006484  1.5031083   1.1789141
   0.8962129   1.0754536  -0.50162196  1.7033557  -1.2040085  -0.6667995
   1.1691244   1.0338562 ]
 [ 0.28291786  0.5986115   0.67824674  0.6152776  -0.46907562 -0.93691474
   1.0370296   0.7997924   0.50354177 -0.823304   -0.9299722   1.0180157
   1.0501182  -0.4231334   1.2508873  -1.0631791  -0.42239636 -0.6837866
   1.2422742  -0.47136343 -0.42871746  1.0729114  -0.5351187  -0.62907183
  -1.1940708   0.82877845]
 [ 0.76831204  0.5672506   0.44824257  0.60863215  1.3212761   1.6180788
  -1.0722305  -1.0450842   0.27413973 -0.921249   -0.38709494 -1.3175142
   0.78322434  1.4361975  -1.1726122  -1.5319922  -0.3654579   1.1856351
  -0.6878195  -0.72355443  0.92998445 -0.5331237   0.6035889  -1.0228001
  -1.1432828   1.6617968 ]
 [ 0.1583548   0.05921811 -0.15672034 -0.13500845 -1.070273   -1.0572788
  -1.2709916   1.0837215   0.60992867  0.06132787  1.2319777   0.9699362
  -1.2598282  -1.5121032   1.0179482   1.4742855   1.2163069  -0.603022
  -0.8244757  -1.2464416   1.0674678   0.9854097  -0.7001807  -1.4516277
  -0.83721346  0.71392196]
 [ 0.14131342  0.0292135   0.03200341  0.06036481  0.76948595 -1.4266679
  -1.3760765  -1.2849933  -1.4749892   1.4437792  -0.9404057  -0.46140194
   1.1388757  -0.7373489   1.3466642   0.6431343   0.68343085  0.8200097
   0.59568214  1.0300548  -1.0376364   1.1147625   0.9281427   0.71214986
  -1.3161559  -0.6865751 ]
 [-0.34305212  0.04423847 -0.44611785  0.00387453  1.1200666   1.5202308
   0.8454769  -0.9980964   1.4510149   1.3278134  -0.8901657   1.287249
   1.3335319  -1.1208631  -0.75237286 -1.0319996  -1.1432273   1.1266913
   1.2360045  -1.505142   -1.0127864   1.1349735  -1.2601776   0.9151909
  -1.0418065  -0.5021355 ]]
dense_5/bias:0
(26,)
[-4.6852803e-01 -4.5304546e-01 -4.5253330e-01 -4.5535356e-01
 -9.5063105e-02 -2.4524221e-01  4.9953365e-01  1.0896176e-01
  6.0669768e-01  2.8720763e-01  4.8850656e-01  5.6990737e-01
  4.2731361e-04  4.4705638e-01  1.8538132e-01 -1.6411711e-02
  6.1703944e-01  5.7597792e-01  5.9729719e-01  1.7802221e-01
  3.5459709e-01  2.3862319e-01  7.6504046e-01  2.3408526e-01
 -2.7254808e-01  3.1707919e-01]
