embedding/embeddings:0
(26, 2)
[[ 0.19824193 -0.20794542]
 [-0.2096504  -0.48399982]
 [-0.38963795  0.14533798]
 [ 0.00359484  0.81088877]
 [ 0.40210095  0.68240166]
 [-0.06635694  0.07106554]
 [ 0.46448368 -0.237053  ]
 [-0.4887794   0.6315015 ]
 [-0.45430577 -0.20476963]
 [ 0.35440183 -0.4063409 ]
 [-0.42993748  0.21068062]
 [ 0.6063959   0.55699223]
 [ 0.30651078 -0.06897435]
 [-0.15926068 -0.70214105]
 [-0.51588684 -0.7349599 ]
 [-0.3033593  -0.4746554 ]
 [ 0.41888008  0.02862239]
 [-0.5127595   0.40165567]
 [ 0.72458225 -0.5837408 ]
 [ 0.3017036  -0.5722507 ]
 [-0.07204293 -0.14295237]
 [-0.24688473  0.6720619 ]
 [-0.78863305  0.01246471]
 [ 0.5202052  -0.7172268 ]
 [ 0.89903635  0.03880574]
 [-0.01015015 -0.0080502 ]]
simple_rnn_4/simple_rnn_cell_4/kernel:0
(2, 10)
[[ 1.001856   -1.125283    0.2646606  -0.89884144  0.37308037 -0.790491
   1.4305875  -0.4101245  -1.0375257  -1.2877017 ]
 [-0.39460817  0.92725545  0.0169779  -1.0868281  -0.6891179   0.26944283
   1.1952684  -0.85863113 -0.4463048   1.0137774 ]]
simple_rnn_4/simple_rnn_cell_4/recurrent_kernel:0
(10, 10)
[[-0.4737145  -0.6999653  -0.47830197  0.14857034 -0.4307892   0.5369603
  -0.26085764  0.14273538 -1.2307335   0.65169007]
 [ 0.9999818   1.1479036   0.9610883   0.35829896  0.5493546  -0.49911514
  -0.07268889 -1.0205778  -0.27576903  0.8995348 ]
 [ 0.531041   -0.750298    0.01048177 -0.0805029   0.7285237   1.1854833
  -0.8106762   0.11006286 -0.04296619 -0.7985316 ]
 [ 0.6688392  -0.36416984 -1.2565347  -0.04829689  1.0405388   0.7166038
  -0.08932348 -0.5580395   1.0283417   0.38292778]
 [ 0.10186678 -0.49395603  0.39298815  0.9034433   1.1243109   0.23747878
   0.46597773 -0.3699082   0.47116637  1.0813476 ]
 [-0.85886174  0.53908473 -0.86248237 -0.70181835  0.00632101 -0.51962334
  -1.0323815   0.28476217  1.1027005  -0.01155045]
 [-0.12063472 -0.6446437   0.31728855 -0.05112324 -1.1146392   0.571563
   0.64105415 -1.2008864   0.49965262  0.57030666]
 [-1.5817386   0.85812324 -0.3397506  -0.71163124  0.91248494 -0.00220238
   0.9632266   0.1514193   0.94731367  0.39586276]
 [-0.4870916   0.5436368   0.94387496  1.032217    0.6705453  -0.65005845
  -0.19622417 -0.29151344  0.14858858 -0.9254457 ]
 [ 0.4855154  -0.27523807 -0.05832449 -1.0105405   0.6202607  -1.2291343
  -0.7023437  -0.9708924   0.7448454   0.10142811]]
simple_rnn_4/simple_rnn_cell_4/bias:0
(10,)
[ 0.3915223  -0.13566701 -0.15506415  0.04954298  0.00147527 -0.25795084
 -0.15642475 -0.20500739  0.25879607  0.10773715]
dense_4/kernel:0
(10, 26)
[[-6.43186644e-02  1.07513979e-01 -3.32687259e-01 -1.33026496e-01
  -1.10483766e+00  1.06004977e+00  5.19308925e-01 -9.00118828e-01
  -7.16712177e-01 -1.03528178e+00  1.25093520e+00  3.52658987e-01
   8.94310296e-01  1.29011846e+00  9.34511840e-01 -4.16002005e-01
  -9.93495286e-01  9.71420884e-01  2.83106327e-01  9.36191380e-01
  -1.07303178e+00 -1.32484674e+00 -9.16848123e-01 -1.63382408e-03
   6.44535601e-01  1.21032763e+00]
 [-4.13727760e-01  2.28423104e-02 -2.91058421e-01 -1.02897631e-02
   8.25589180e-01 -9.68333721e-01 -9.53801453e-01 -7.73058832e-01
   1.13607335e+00  1.55728802e-01  1.26122189e+00 -9.27085221e-01
  -4.76143867e-01  1.82178114e-02 -6.80211604e-01  1.11870396e+00
   8.69979858e-01  9.47357595e-01 -1.04905736e+00 -8.55357885e-01
  -8.33741546e-01 -8.84154737e-01  4.50358897e-01  1.05070007e+00
  -9.72302854e-01 -8.56025875e-01]
 [ 1.92177504e-01  2.46377736e-01  4.10717756e-01 -9.95435193e-03
   9.97946858e-01  1.00473797e+00 -7.02907324e-01 -7.60912359e-01
  -4.97435510e-01 -1.00946462e+00  7.28545964e-01 -9.92439747e-01
  -8.90760601e-01  3.49061340e-01 -8.32635045e-01 -1.04580843e+00
   3.72488946e-01  3.68942350e-01  1.21938813e+00 -6.87330127e-01
   6.35712743e-01 -2.44541958e-01  5.47840595e-01  1.08347821e+00
   6.60695672e-01 -9.57204998e-01]
 [-3.65421206e-01 -3.29669446e-01 -3.38850439e-01 -4.33067717e-02
  -3.94340992e-01  4.52212155e-01 -6.16057932e-01 -9.48178709e-01
  -8.93232226e-01 -1.06238449e+00  7.02275693e-01  7.58925617e-01
  -9.91715908e-01  1.11043513e+00 -7.44799376e-01 -6.68379486e-01
   7.78419256e-01  9.84231770e-01  1.09074366e+00 -4.81863081e-01
   1.00036705e+00 -1.10424590e+00 -9.73523259e-01  8.39087903e-01
   9.02733386e-01  6.26327813e-01]
 [-1.73738912e-01 -5.31223834e-01  2.05645505e-02 -5.11908472e-01
   8.99389565e-01  6.20796323e-01 -7.54511714e-01 -7.40350544e-01
  -1.01599002e+00 -3.90636265e-01 -2.16684446e-01  6.02410495e-01
   9.56372380e-01 -9.70635295e-01 -6.82427227e-01 -5.20885825e-01
   1.20690489e+00  1.03752971e+00  7.58131683e-01  9.08434868e-01
  -4.08085167e-01  1.32557487e+00 -9.83276010e-01 -3.96612853e-01
   9.89996254e-01  9.23961520e-01]
 [ 2.69128740e-01  5.86608708e-01  6.58805549e-01  6.04331553e-01
  -4.82427835e-01 -8.10211658e-01  9.41804230e-01  7.49170542e-01
   3.33477288e-01 -6.24520242e-01 -8.81105781e-01  9.77436304e-01
   7.73890913e-01 -3.69130731e-01  1.11281490e+00 -8.77466023e-01
  -3.67018282e-01 -6.14693642e-01  1.04373920e+00 -2.10553452e-01
  -3.18747103e-01  8.94015133e-01 -4.96299863e-01 -5.73976040e-01
  -9.85578537e-01  7.68604040e-01]
 [ 7.90628493e-01  5.70660114e-01  4.49531645e-01  6.13648176e-01
   1.18808413e+00  1.37833929e+00 -9.50268388e-01 -7.30601788e-01
  -7.78643563e-02 -7.42548406e-01  2.31127031e-02 -8.18888366e-01
   1.22765563e-01  1.24040866e+00 -1.11393213e+00 -1.23228288e+00
  -3.42845529e-01  9.98046279e-01 -2.17328265e-01 -6.07162297e-01
   6.38951480e-01 -4.34492528e-01  2.32650116e-01 -7.34300494e-01
  -8.71128678e-01  1.39221549e+00]
 [ 1.86417446e-01  7.99263194e-02 -1.48770526e-01 -1.16712704e-01
  -9.65972543e-01 -1.00739038e+00 -1.02646494e+00  9.60457981e-01
   4.61389750e-01  4.26698536e-01  7.53459692e-01  7.41156101e-01
  -1.12068629e+00 -1.15953255e+00  7.03298569e-01  1.24695694e+00
   1.10151029e+00 -5.56651413e-01 -6.95429027e-01 -1.07630694e+00
   9.83462870e-01  7.31693447e-01 -4.98721927e-01 -1.28154027e+00
  -7.22038925e-01  5.62786579e-01]
 [ 1.30321056e-01  1.79360844e-02  4.11567129e-02  4.90138978e-02
   7.87344038e-01 -1.11361539e+00 -1.20001519e+00 -1.07383883e+00
  -1.31094658e+00  1.24254060e+00 -7.78639674e-01 -2.42784172e-01
   9.77096379e-01 -6.59147620e-01  9.67496037e-01  5.22169411e-01
   5.24089217e-01  6.59762740e-01  1.20844215e-01  7.89192021e-01
  -9.70880568e-01  9.51456010e-01  8.59330416e-01  6.41303360e-01
  -1.00226831e+00 -5.44612646e-01]
 [-3.85962605e-01  3.78748626e-02 -4.73620236e-01  5.70557313e-04
   6.83353782e-01  1.08502984e+00  6.47398353e-01 -7.85639524e-01
   1.29474831e+00  9.49311674e-01 -8.18747103e-01  1.08155727e+00
   1.15384841e+00 -6.28814638e-01 -5.37772596e-01 -7.88421094e-01
  -9.23287153e-01  8.47826481e-01  1.14450419e+00 -1.33197653e+00
  -9.06414509e-01  1.04842877e+00 -9.04249966e-01  5.08881450e-01
  -8.45385671e-01  2.04128586e-02]]
dense_4/bias:0
(26,)
[-0.4502735  -0.4367212  -0.43712795 -0.4391796  -0.05798746 -0.19924642
  0.4864364   0.15769063  0.512859    0.25583434  0.43657026  0.57797384
  0.12354738  0.42401212  0.2523223   0.01509323  0.5518484   0.5916659
  0.57488596  0.13878061  0.332688    0.1562201   0.74219126  0.24600725
 -0.2534103   0.26279658]
